// Generated by test_settings.py using tensorflow version 2.14.0 (Keras version 2.14.0).
// Interpreter from tflite_runtime version 2.16.0dev20231108 and revision 0.6.0-155953-g2bcb825a248.
#include <stdint.h>

#define BASIC_2_INT4_OUT_CH 15
#define BASIC_2_INT4_IN_CH 5
#define BASIC_2_INT4_INPUT_W 15
#define BASIC_2_INT4_INPUT_H 15
#define BASIC_2_INT4_DST_SIZE 1815
#define BASIC_2_INT4_INPUT_SIZE 1125
#define BASIC_2_INT4_OUT_ACTIVATION_MIN -128
#define BASIC_2_INT4_OUT_ACTIVATION_MAX 127
#define BASIC_2_INT4_INPUT_BATCHES 1
#define BASIC_2_INT4_FILTER_X 5
#define BASIC_2_INT4_FILTER_Y 5
#define BASIC_2_INT4_STRIDE_X 1
#define BASIC_2_INT4_STRIDE_Y 1
#define BASIC_2_INT4_PAD_X 0
#define BASIC_2_INT4_PAD_Y 0
#define BASIC_2_INT4_OUTPUT_W 11
#define BASIC_2_INT4_OUTPUT_H 11
#define BASIC_2_INT4_INPUT_OFFSET 0
#define BASIC_2_INT4_OUTPUT_OFFSET 0
#define BASIC_2_INT4_DILATION_X 1
#define BASIC_2_INT4_DILATION_Y 1

const int32_t basic_2_int4_biases[15] = {104, -99, -2, -127, -45, -4, -93, 86, -122, -49, -85, 87, -54, -109, -121};

const int8_t basic_2_int4_weights[938] = {
    -20,  98,   89,   57,   63,   102,  90,   -18,  61,   93,   -71,  48,   10,   -52,  -111, -105, -66,  -92,  -3,
    8,    97,   32,   97,   13,   -58,  -6,   -36,  19,   -71,  -91,  -21,  21,   2,    -64,  43,   47,   84,   -35,
    3,    80,   60,   20,   8,    11,   21,   -68,  108,  73,   -43,  107,  30,   -70,  -45,  109,  -79,  -23,  -84,
    64,   3,    -45,  14,   -95,  57,   5,    104,  53,   -80,  -38,  -96,  108,  -95,  15,   -53,  -56,  -63,  66,
    68,   28,   -52,  47,   -43,  -66,  -21,  2,    22,   -78,  -71,  68,   90,   82,   10,   -21,  5,    36,   62,
    -70,  50,   62,   0,    123,  -111, 99,   82,   60,   6,    32,   10,   -3,   -94,  -11,  -32,  -17,  -43,  -54,
    -22,  -60,  92,   -59,  -20,  9,    -111, 63,   63,   -32,  -67,  52,   -63,  -66,  49,   77,   99,   -76,  4,
    -30,  -77,  15,   27,   29,   -60,  31,   -78,  -66,  -14,  -91,  73,   112,  -84,  34,   65,   33,   -32,  -29,
    34,   4,    36,   -102, 86,   99,   64,   -96,  -43,  67,   -45,  -33,  83,   -48,  -10,  -70,  -103, 41,   -112,
    27,   26,   106,  53,   -80,  44,   65,   -69,  109,  42,   -74,  5,    -33,  -4,   29,   -35,  10,   -111, 17,
    -50,  -80,  -20,  13,   -54,  31,   -109, 85,   0,    -95,  81,   -26,  75,   27,   111,  -16,  -39,  -54,  -101,
    -110, -61,  79,   36,   26,   -11,  -21,  66,   45,   101,  17,   -30,  -27,  59,   -33,  -61,  64,   2,    -61,
    0,    -98,  -59,  98,   74,   9,    -28,  -2,   -67,  -14,  10,   25,   -16,  19,   45,   -16,  66,   11,   0,
    15,   107,  99,   80,   13,   -45,  -79,  -36,  77,   59,   -103, -2,   78,   2,    -90,  -12,  17,   47,   76,
    -13,  -17,  21,   -11,  97,   4,    13,   37,   57,   97,   -30,  -91,  5,    61,   -14,  101,  -5,   -66,  -84,
    2,    -55,  -20,  -23,  12,   -13,  -99,  -23,  96,   27,   6,    81,   -59,  0,    -47,  -69,  70,   102,  87,
    -93,  -102, -59,  33,   -78,  0,    59,   58,   -21,  -65,  -64,  109,  12,   86,   -52,  -106, -102, 110,  -45,
    37,   -80,  83,   83,   11,   0,    -96,  48,   -93,  81,   9,    100,  101,  -33,  2,    82,   15,   77,   11,
    49,   101,  -37,  -74,  -39,  -22,  35,   -30,  4,    86,   64,   3,    18,   13,   -52,  58,   4,    91,   -20,
    -58,  -111, 9,    51,   111,  108,  -13,  64,   80,   2,    -6,   -76,  -8,   66,   -20,  6,    16,   22,   0,
    -47,  45,   -80,  68,   -20,  105,  -22,  26,   33,   -45,  26,   -47,  35,   -86,  63,   -85,  36,   67,   -63,
    -14,  -110, 5,    -51,  85,   67,   -85,  97,   102,  -83,  -14,  70,   -74,  -76,  -23,  -68,  -96,  -55,  79,
    60,   -48,  -49,  50,   -42,  -64,  121,  82,   11,   25,   -82,  -28,  -112, -53,  27,   -33,  -42,  -92,  84,
    -7,   102,  -53,  47,   -92,  41,   33,   -32,  -54,  86,   6,    53,   37,   -65,  -51,  34,   47,   -37,  -18,
    -96,  -38,  -100, 92,   32,   -80,  -112, -67,  -102, 41,   -112, 100,  35,   -111, -28,  -63,  -48,  85,   69,
    68,   41,   0,    73,   51,   -99,  30,   59,   16,   -93,  80,   -49,  15,   28,   75,   20,   -32,  -58,  49,
    0,    27,   14,   13,   86,   -42,  21,   84,   96,   1,    -59,  13,   31,   -107, -54,  78,   2,    -35,  101,
    -28,  -106, -103, 65,   -96,  46,   -28,  105,  43,   2,    6,    -102, -3,   -55,  32,   28,   -71,  -68,  18,
    73,   5,    42,   -105, 9,    -82,  26,   -103, -38,  -29,  -4,   -68,  -60,  109,  -84,  13,   76,   2,    64,
    47,   108,  -42,  -107, -27,  54,   -75,  6,    17,   10,   48,   -111, -31,  -17,  -116, -28,  32,   49,   -81,
    47,   -62,  -2,   -103, 3,    -18,  110,  101,  105,  41,   111,  -106, -67,  -13,  -67,  -101, -102, 45,   13,
    60,   106,  100,  -18,  -4,   97,   -110, -18,  -48,  -107, 102,  -60,  -87,  -70,  -38,  28,   -81,  27,   -96,
    -34,  -62,  -107, -36,  -109, 38,   -63,  20,   74,   63,   -14,  91,   59,   110,  -3,   -33,  -80,  -6,   0,
    -22,  9,    1,    78,   -59,  -80,  22,   -82,  92,   14,   35,   -49,  -71,  -8,   108,  -7,   77,   -18,  32,
    105,  -81,  15,   60,   69,   -69,  13,   35,   -29,  83,   -74,  116,  -7,   -100, 66,   -58,  10,   100,  -69,
    -30,  -82,  21,   -10,  86,   12,   -54,  48,   100,  -91,  -53,  -76,  32,   0,    -27,  32,   47,   5,    53,
    2,    44,   -59,  99,   -61,  49,   -97,  -98,  109,  10,   -106, 32,   -47,  11,   74,   -2,   9,    61,   -11,
    15,   -23,  14,   45,   -7,   85,   -93,  -81,  89,   -66,  85,   -110, 14,   93,   33,   14,   85,   38,   -48,
    -46,  -96,  110,  43,   -77,  -22,  -25,  -28,  -23,  -61,  -99,  77,   29,   32,   96,   -49,  47,   -48,  48,
    -16,  -81,  -82,  -4,   79,   100,  -70,  -93,  83,   -81,  -90,  85,   64,   106,  102,  -108, 18,   106,  64,
    48,   41,   3,    89,   110,  32,   50,   96,   9,    -107, 94,   81,   -27,  37,   21,   -127, 99,   -32,  13,
    3,    -43,  -97,  -48,  -35,  0,    5,    46,   -101, -95,  13,   -23,  77,   -1,   60,   -16,  66,   -112, 42,
    -1,   -71,  -31,  9,    -60,  -66,  0,    111,  -44,  117,  15,   97,   36,   47,   41,   97,   -1,   -95,  2,
    49,   11,   37,   16,   -50,  50,   0,    -64,  -68,  41,   -20,  41,   73,   73,   1,    -80,  9,    -103, 29,
    -100, 49,   16,   -55,  20,   80,   17,   12,   6,    -1,   17,   -55,  65,   -26,  -33,  2,    57,   9,    -15,
    35,   98,   0,    78,   -16,  0,    83,   109,  18,   2,    -85,  105,  -106, -5,   95,   -94,  11,   53,   9,
    -84,  -46,  27,   84,   -52,  14,   -35,  -35,  18,   30,   -54,  -76,  3,    -32,  18,   30,   -76,  -47,  82,
    64,   43,   2,    66,   -54,  -30,  -22,  -12,  -84,  13,   -62,  0,    -5,   46,   26,   82,   -59,  -19,  25,
    -65,  -63,  -75,  -32,  -35,  -107, 62,   22,   57,   -75,  63,   -48,  60,   2,    -16,  60,   96,   48,   83,
    -80,  -13,  -2,   -91,  -64,  9,    5};

const int8_t basic_2_int4_input[1125] = {
    101,  -65,  76,   -8,   -3,   -22,  119,  10,   65,   -86,  7,    -41,  111,  99,   122,  -95,  87,   119,  67,
    67,   23,   -42,  -75,  -114, -89,  97,   -116, 77,   19,   6,    -109, 101,  -65,  -67,  0,    34,   -78,  -102,
    18,   -1,   -121, -53,  -107, 92,   85,   -22,  -49,  -80,  74,   11,   90,   119,  -93,  123,  72,   28,   -37,
    -14,  -59,  -91,  -89,  119,  121,  -2,   -71,  35,   -98,  -127, -17,  -105, 88,   53,   34,   43,   32,   43,
    -23,  22,   5,    -107, 119,  55,   61,   -87,  -110, -105, -59,  7,    91,   71,   -50,  103,  121,  9,    -24,
    -2,   81,   26,   -107, -114, 27,   -86,  -106, -72,  -68,  -20,  -50,  21,   -112, 80,   -13,  3,    -81,  55,
    70,   90,   -36,  -29,  -95,  58,   -46,  -110, 117,  -58,  81,   -59,  -21,  -13,  -62,  -79,  92,   -112, 25,
    3,    11,   -27,  -99,  -126, 16,   9,    80,   33,   28,   12,   -71,  -77,  92,   47,   -88,  -82,  9,    40,
    -11,  61,   65,   -81,  -101, 76,   102,  41,   21,   -63,  15,   113,  -29,  30,   -18,  -30,  5,    113,  84,
    -22,  -33,  -41,  48,   109,  90,   72,   -51,  -68,  -102, 126,  74,   -62,  -71,  -32,  -76,  -95,  26,   -75,
    85,   9,    -94,  52,   -60,  -108, -101, 64,   -87,  15,   109,  -30,  -25,  117,  -85,  26,   -42,  26,   83,
    61,   -57,  -39,  11,   26,   -97,  -50,  -53,  -115, 93,   60,   118,  -32,  116,  -20,  103,  121,  80,   91,
    74,   125,  123,  -104, 94,   98,   58,   107,  -64,  97,   122,  -3,   -87,  73,   -79,  -9,   14,   -3,   -81,
    -29,  41,   80,   -76,  -128, -97,  -36,  -22,  11,   90,   125,  -75,  125,  54,   44,   -86,  -73,  72,   50,
    40,   126,  -54,  62,   67,   -94,  -22,  106,  -12,  125,  -120, -68,  -127, 12,   101,  -45,  44,   60,   -27,
    98,   -26,  109,  88,   -11,  -7,   -111, 43,   -80,  61,   15,   -80,  24,   109,  78,   15,   -8,   105,  -112,
    -116, -97,  45,   103,  17,   57,   51,   18,   113,  -49,  -94,  -88,  -76,  -100, 9,    -128, -47,  4,    -81,
    -120, -71,  67,   -37,  57,   -112, -68,  -76,  41,   80,   -116, -7,   -40,  15,   71,   65,   -18,  -38,  -47,
    73,   -105, -120, -110, 65,   -110, 54,   -47,  57,   -50,  -102, -62,  25,   -40,  -88,  108,  -67,  85,   -13,
    17,   65,   110,  126,  54,   -90,  99,   62,   -19,  5,    -33,  -23,  -73,  -87,  -118, -43,  87,   74,   66,
    -99,  61,   -29,  -74,  -62,  -87,  60,   -126, 73,   -25,  50,   -86,  -89,  -51,  119,  66,   -48,  -34,  -60,
    -1,   12,   -91,  35,   75,   83,   -116, 51,   -128, -50,  -9,   26,   -83,  25,   -78,  -21,  34,   1,    -82,
    82,   58,   -101, -25,  21,   41,   64,   62,   45,   73,   -118, -127, -74,  76,   -19,  115,  31,   3,    48,
    44,   -78,  28,   11,   110,  -86,  -125, 122,  25,   68,   -114, -36,  -105, 98,   -76,  124,  -50,  -5,   64,
    -34,  -41,  78,   62,   -55,  -64,  82,   -60,  -89,  -30,  105,  -14,  9,    -4,   35,   59,   23,   -36,  18,
    -114, -39,  39,   -24,  -105, -11,  -126, 13,   -79,  75,   36,   27,   89,   54,   -85,  -17,  108,  -8,   77,
    -52,  45,   111,  -69,  -59,  -120, -82,  112,  -15,  -122, -117, 21,   -113, 7,    37,   -122, 100,  -4,   60,
    123,  -50,  76,   108,  -98,  -108, -23,  92,   -61,  37,   94,   -96,  -67,  58,   106,  -15,  -90,  -26,  -87,
    -99,  -111, 1,    86,   29,   -117, -94,  -32,  27,   72,   36,   -98,  -90,  42,   67,   55,   77,   109,  52,
    83,   -75,  65,   -101, -37,  -75,  71,   -23,  -40,  61,   -119, -19,  -110, -61,  -9,   -69,  22,   50,   -8,
    42,   77,   124,  -95,  109,  -78,  26,   13,   -42,  -83,  33,   8,    -108, -116, 53,   0,    -113, 87,   -82,
    82,   -98,  22,   13,   68,   31,   42,   -53,  60,   25,   -74,  109,  83,   -28,  78,   -76,  18,   -58,  83,
    -9,   91,   115,  -76,  35,   107,  -117, -121, -105, 48,   45,   -58,  65,   -95,  -25,  44,   92,   -79,  38,
    -13,  -41,  -64,  -99,  -24,  -19,  -78,  -125, -25,  51,   -68,  9,    -119, -125, 91,   61,   11,   -125, -31,
    -101, 56,   61,   81,   68,   1,    -83,  71,   58,   -104, 41,   4,    -9,   59,   -3,   124,  65,   -98,  -7,
    2,    -55,  -54,  -25,  -56,  -110, -66,  125,  124,  70,   70,   46,   -82,  -35,  70,   114,  3,    78,   105,
    -30,  69,   -7,   -33,  65,   45,   -33,  -100, -41,  13,   59,   -22,  16,   -18,  -126, -35,  123,  20,   -50,
    119,  -43,  -53,  -50,  -120, -64,  -98,  -104, 59,   -8,   114,  89,   -89,  -50,  122,  -3,   -64,  -83,  14,
    -8,   -85,  -34,  96,   6,    125,  5,    -5,   -123, -87,  -77,  107,  -117, 99,   99,   29,   37,   -34,  82,
    125,  85,   54,   -45,  -6,   -24,  72,   -15,  -35,  121,  73,   -1,   36,   27,   -70,  61,   12,   91,   108,
    23,   -68,  -95,  110,  86,   65,   70,   49,   -113, -106, 38,   -66,  -77,  12,   72,   92,   -105, 76,   71,
    -56,  8,    20,   123,  -78,  24,   -2,   -117, -110, 95,   -115, 5,    87,   51,   102,  -6,   -78,  -43,  22,
    -99,  86,   -5,   -116, -74,  119,  -5,   -127, 21,   -3,   95,   23,   41,   -64,  31,   -80,  87,   68,   47,
    65,   -69,  70,   43,   -25,  7,    -56,  -29,  -90,  -12,  37,   46,   90,   -50,  -56,  67,   0,    66,   6,
    69,   -106, -22,  -119, 81,   -112, 60,   -121, 59,   99,   -40,  14,   28,   42,   70,   -127, -43,  -36,  -62,
    -9,   -86,  -79,  -110, 26,   -116, -119, -19,  62,   19,   90,   -104, -24,  -111, -98,  73,   -47,  119,  -111,
    67,   -18,  37,   -9,   -108, -126, -127, 125,  65,   63,   7,    4,    -4,   55,   -10,  57,   104,  83,   -48,
    22,   -65,  -114, -30,  -75,  -48,  -78,  -107, -91,  -62,  -75,  -38,  -83,  -46,  -110, 124,  53,   -71,  -57,
    -7,   31,   -102, -36,  42,   -49,  106,  67,   -58,  -126, -125, -57,  -112, -70,  113,  60,   5,    -95,  98,
    118,  -5,   -81,  55,   -121, -91,  81,   -85,  -122, -4,   51,   29,   -20,  -62,  -38,  105,  -23,  -127, -28,
    -61,  17,   99,   96,   -36,  14,   -72,  -30,  16,   34,   -47,  -118, 65,   -46,  83,   -39,  -70,  -110, -33,
    -60,  -110, 14,   53,   29,   -59,  89,   -82,  -51,  89,   -63,  49,   62,   32,   103,  -97,  94,   -21,  -116,
    -42,  -38,  -62,  -85,  -70,  51,   1,    13,   84,   -9,   105,  126,  -6,   33,   82,   -4,   -40,  33,   13,
    -110, 71,   -116, -123, -93,  -125, 62,   59,   -26,  -105, 99,   -24,  60,   -37,  -94,  -117, -79,  15,   -38,
    126,  22,   -123, 20,   79,   46,   -22,  -2,   80,   28,   -26,  24,   -23,  126,  82,   -76,  76,   111,  74,
    -23,  -93,  -114, -23,  12,   89,   -2,   24,   -125, 5,    -34,  84,   115,  -31,  -112, 54,   -10,  -112, 101,
    64,   -86,  20,   26,   51,   110,  -40,  114,  97,   -27,  28,   73,   59,   -95,  54,   -36,  41,   -128, 42,
    -125, 100,  -74,  -25,  -59,  -107, -39,  74,   -23,  -95,  19,   66,   -60,  -13,  -49,  -110, -74,  65,   41,
    9,    -57,  13,   48,   -111, 106,  -52,  -71,  -107, -127, -51,  -81,  -116, 62,   -85,  74,   -3,   55,   87,
    -1,   -66,  71,   47};

const int8_t basic_2_int4_output_ref[1815] = {
    127,  114,  -2,   -119, -19,  -128, 127,  54,   127,  -128, -128, -55,  -128, 45,   -5,   127,  127,  102,  23,
    25,   -128, -128, -128, -128, 127,  77,   -56,  -128, 103,  -118, 103,  29,   26,   11,   -122, 127,  127,  102,
    -128, 127,  127,  -2,   24,   127,  -73,  -128, 74,   -73,  127,  -29,  54,   127,  127,  127,  1,    -128, 77,
    127,  -128, 40,   127,  127,  127,  28,   22,   105,  30,   -90,  127,  127,  127,  -128, 112,  -128, 72,   -128,
    -128, 127,  -128, 94,   39,   -78,  127,  65,   -128, -128, 8,    -128, 121,  13,   127,  -10,  -128, 41,   82,
    -32,  -128, 82,   -128, -8,   -51,  -65,  -128, -77,  34,   127,  -128, 127,  105,  -128, 93,   -128, -128, -128,
    127,  -59,  -14,  -128, 127,  4,    -22,  -21,  -128, 127,  -59,  127,  35,   94,   -128, -113, 97,   44,   -128,
    127,  -58,  -7,   67,   104,  127,  -43,  127,  127,  -91,  -128, 127,  -128, -112, 127,  127,  36,   -60,  115,
    127,  77,   -10,  -128, -122, -128, -64,  -128, -78,  -35,  20,   127,  47,   6,    7,    -128, 44,   21,   -39,
    127,  -128, 114,  -128, -123, 42,   127,  127,  -125, 30,   49,   127,  61,   -128, 127,  127,  -128, 127,  127,
    -11,  -36,  127,  -5,   -15,  -128, 127,  127,  -128, 53,   127,  127,  -128, -128, 127,  -128, 21,   127,  -47,
    -19,  22,   1,    123,  -10,  64,   -128, 127,  127,  127,  127,  -128, 127,  127,  126,  56,   127,  127,  73,
    102,  31,   20,   -128, 127,  -128, 103,  57,   69,   79,   70,   -31,  -128, -114, -128, 127,  52,   -50,  -128,
    65,   127,  -128, 127,  97,   111,  -11,  23,   127,  127,  124,  127,  -62,  83,   127,  -128, 127,  -128, -114,
    33,   127,  -128, -57,  127,  77,   127,  127,  25,   127,  -128, 66,   127,  64,   127,  60,   -128, 38,   37,
    63,   45,   127,  -26,  -128, -58,  127,  -128, 127,  127,  20,   127,  127,  127,  -16,  -128, -128, -113, 3,
    24,   -128, -128, -117, -128, -128, -23,  109,  127,  -128, 51,   127,  38,   31,   114,  -38,  -116, 127,  127,
    127,  127,  127,  -128, 127,  127,  -14,  -128, 102,  -63,  127,  127,  127,  -128, -111, 127,  127,  76,   11,
    119,  -51,  2,    127,  -128, 9,    -37,  -32,  -128, 7,    -128, 127,  -92,  -128, -79,  127,  17,   -60,  -128,
    -116, -128, 121,  -66,  127,  127,  25,   -128, -128, 127,  -86,  -128, -41,  57,   127,  120,  127,  -41,  -17,
    -128, 127,  127,  127,  127,  -47,  -48,  127,  12,   -12,  46,   50,   127,  -128, -27,  -128, -128, 127,  127,
    -80,  127,  -117, -75,  -80,  30,   109,  127,  127,  -53,  127,  -128, 127,  127,  -128, 127,  -128, 99,   -128,
    -88,  -35,  127,  80,   -62,  76,   127,  127,  -128, 127,  -89,  127,  127,  -13,  -37,  -128, 94,   -128, -128,
    -128, -128, -96,  -128, 68,   -17,  16,   -128, -128, 20,   -128, -128, 12,   127,  117,  -53,  67,   -125, 127,
    127,  127,  -128, 127,  -128, 117,  127,  -128, 3,    127,  127,  -128, -128, -128, -128, 127,  -128, 127,  -128,
    -128, 19,   72,   -128, 76,   -128, -128, -128, -34,  -36,  -128, -128, -128, 127,  -128, 127,  -70,  12,   -128,
    -45,  -128, 64,   -128, -45,  -57,  -128, 127,  107,  127,  127,  -20,  127,  -128, -55,  7,    127,  127,  127,
    -69,  11,   -128, -120, 127,  127,  127,  -128, 35,   127,  22,   -45,  -83,  -128, -128, -65,  3,    127,  -128,
    -54,  127,  -128, 18,   26,   -128, -123, 78,   127,  -115, -87,  -15,  -48,  -128, 127,  -128, -83,  19,   106,
    34,   -128, 127,  50,   127,  -128, 127,  29,   99,   -128, -128, 109,  127,  127,  9,    8,    -60,  127,  53,
    127,  25,   -128, 13,   -78,  -128, 127,  -6,   -128, 127,  -128, -38,  127,  127,  78,   -25,  127,  -102, -30,
    24,   -128, -128, 127,  127,  -128, 127,  -66,  127,  -126, -86,  -77,  127,  127,  127,  -87,  127,  -128, 15,
    127,  127,  -84,  127,  -65,  127,  94,   -128, 55,   24,   41,   -43,  127,  -128, 56,   -128, -128, -82,  -36,
    71,   -128, -41,  127,  -128, -128, 120,  -19,  -128, -128, 52,   -15,  127,  -128, 127,  -84,  -128, 22,   -19,
    -124, -128, -38,  16,   -29,  59,   81,   127,  127,  127,  114,  127,  127,  47,   -128, -54,  127,  -117, -128,
    127,  127,  -66,  127,  -128, -32,  -19,  -128, 127,  -49,  -93,  43,   -128, 77,   127,  -128, 127,  -128, -128,
    -128, 127,  -16,  -128, 21,   -74,  57,   127,  55,   96,   45,   -128, 127,  -5,   22,   127,  127,  -1,   -128,
    127,  39,   127,  -51,  127,  47,   -17,  -40,  -128, 127,  -128, 127,  127,  54,   -86,  84,   21,   127,  12,
    127,  127,  43,   -42,  -121, 127,  -128, -59,  -33,  74,   2,    37,   -67,  127,  -10,  23,   127,  -105, -44,
    127,  127,  -77,  -21,  127,  87,   127,  -128, -20,  -128, -103, -61,  -7,   122,  127,  127,  66,   127,  127,
    127,  -13,  -31,  127,  23,   127,  -128, -128, 1,    127,  -128, -128, -128, 127,  -128, -12,  33,   63,   114,
    19,   -128, 75,   -35,  -51,  -24,  127,  -128, 127,  127,  127,  127,  -128, -4,   -128, 26,   -128, -128, 127,
    -41,  127,  127,  -128, 127,  33,   127,  77,   110,  -128, 127,  6,    127,  -128, 127,  -50,  11,   127,  -128,
    114,  127,  -128, 127,  15,   127,  108,  32,   127,  127,  -128, 116,  -40,  22,   -128, 127,  127,  127,  -128,
    -118, 7,    73,   31,   -128, 33,   42,   -93,  78,   85,   -128, 127,  127,  -93,  -128, -57,  -128, 127,  22,
    127,  89,   97,   -31,  15,   127,  127,  -24,  -128, 127,  127,  -57,  127,  127,  64,   -128, -55,  -112, 24,
    28,   127,  -128, 87,   127,  -128, -38,  127,  -128, 62,   101,  127,  127,  127,  57,   78,   127,  127,  -128,
    127,  127,  127,  24,   127,  -128, -8,   12,   -39,  67,   -60,  -76,  -128, -14,  -80,  127,  127,  33,   101,
    127,  127,  27,   127,  -128, -128, 51,   120,  -128, -100, 127,  127,  -33,  -128, 127,  -58,  127,  24,   127,
    51,   51,   115,  50,   -128, 127,  -128, 17,   127,  88,   83,   127,  -128, -9,   -128, -128, -67,  53,   -41,
    127,  127,  127,  46,   9,    127,  48,   -128, -128, -21,  -128, 127,  -128, -128, 118,  50,   127,  127,  -52,
    -128, 127,  57,   62,   -128, -12,  -55,  -128, 127,  -39,  -126, -128, -128, -128, 127,  -128, 127,  -114, 24,
    -99,  -119, -128, -27,  127,  127,  -44,  -128, 6,    -88,  -128, -128, -128, -36,  -128, 127,  9,    127,  67,
    127,  -128, -107, 127,  44,   -128, -128, 127,  -42,  19,   127,  127,  28,   -40,  12,   -3,   -4,   88,   -128,
    -91,  -46,  -128, 28,   69,   -78,  127,  -128, -40,  6,    127,  -128, 127,  18,   -122, 127,  -22,  127,  -43,
    -128, -98,  -94,  127,  0,    -128, 127,  104,  42,   18,   127,  119,  127,  -128, -4,   3,    -49,  38,   -121,
    -3,   127,  -128, -128, 115,  -43,  127,  -26,  127,  -128, -128, 127,  -16,  -128, 127,  90,   -37,  -128, 0,
    -128, -77,  -80,  127,  101,  127,  127,  -12,  71,   127,  127,  87,   127,  21,   127,  2,    127,  127,  127,
    127,  118,  127,  22,   112,  -128, 127,  64,   127,  -57,  -128, 105,  -28,  -128, -103, 127,  -128, 127,  -60,
    98,   -128, 127,  -64,  -128, 95,   127,  111,  -33,  127,  -128, 127,  -128, -128, -35,  28,   76,   4,    -93,
    127,  127,  -78,  127,  -61,  127,  -128, 65,   -128, 127,  127,  -39,  -57,  127,  -73,  42,   67,   -128, 123,
    -128, -128, -128, -128, -128, 127,  102,  -28,  127,  68,   7,    -128, 59,   71,   71,   26,   127,  42,   -128,
    -128, 52,   12,   -70,  127,  -2,   -65,  -25,  127,  127,  8,    -44,  -128, -79,  -128, 127,  -128, -128, -105,
    -128, -32,  78,   65,   14,   -128, 127,  72,   127,  127,  127,  127,  127,  -128, 47,   -128, 127,  25,   127,
    127,  127,  -128, -31,  -128, -128, 52,   -47,  -120, -128, -23,  -128, 127,  30,   27,   127,  80,   127,  -9,
    -41,  -128, 118,  -128, -128, -23,  75,   -128, 127,  -1,   127,  112,  -128, 102,  -38,  -46,  127,  70,   -128,
    -128, 127,  58,   127,  127,  -78,  -128, -107, 127,  -54,  78,   -128, -128, 28,   127,  -128, 127,  -11,  93,
    -128, -38,  127,  127,  45,   127,  -11,  -93,  127,  127,  127,  41,   20,   -81,  11,   -128, 104,  127,  -85,
    127,  -115, 39,   -128, 104,  127,  127,  -128, -128, -6,   127,  127,  14,   -17,  -46,  98,   83,   5,    127,
    -128, -35,  -128, 96,   4,    38,   127,  90,   44,   -128, 124,  127,  -32,  34,   127,  127,  -15,  127,  127,
    -81,  127,  -33,  127,  6,    127,  25,   7,    127,  30,   127,  127,  -128, 127,  -128, -128, -94,  127,  -128,
    -128, 127,  127,  89,   61,   -125, -128, 127,  19,   65,   127,  127,  59,   -128, 127,  30,   111,  -128, 127,
    9,    7,    -21,  127,  -128, 127,  127,  127,  -1,   127,  127,  -73,  127,  127,  127,  127,  -55,  95,   127,
    48,   -128, 127,  127,  -88,  123,  -128, -11,  -128, 35,   127,  -128, 127,  -128, 127,  127,  127,  127,  -55,
    115,  -128, 106,  63,   127,  -128, -128, 127,  61,   -128, -128, 127,  127,  -34,  -128, -101, 127,  -88,  -124,
    -45,  -41,  39,   -54,  -16,  74,   127,  -16,  -128, 127,  110,  127,  -128, -50,  20,   -128, -99,  -128, -128,
    54,   127,  127,  34,   127,  -128, -108, -19,  -128, 127,  -33,  127,  -88,  -128, 35,   46,   -128, 127,  -128,
    127,  -128, 88,   53,   -14,  20,   -3,   -128, 44,   123,  6,    108,  54,   -128, -128, 127,  127,  127,  55,
    127,  -128, -47,  -128, 127,  -128, 72,   80,   -128, 127,  -128, 127,  -122, -128, 68,   127,  -128, -7,   127,
    64,   127,  86,   -128, -128, 127,  -128, 127,  127,  -24,  -2,   127,  67,   -19,  -91,  33,   98,   -128, -128,
    19,   86,   60,   127,  127,  -127, 99,   127,  7,    89,   -29,  84,   -55,  -34,  87,   127,  127,  -126, 127,
    127,  -128, 64,   127,  -7,   85,   127,  -122, -128, 16,   -36,  -23,  -128, -128, 127,  -128, -76,  -97,  46,
    -29,  18,   127,  127,  -123, 30,   116,  127,  127,  7,    127,  -128, 127,  127,  5,    100,  55,   -128, -128,
    83,   38,   -60,  127,  -128, 0,    127,  -127, 127,  -71,  127,  127,  -77,  127,  57,   -30,  92,   -97,  43,
    8,    15,   -128, 127,  127,  47,   3,    -15,  -84,  -128, 15,   80,   98,   -55,  127,  127,  127,  127,  -128,
    103,  -52,  127,  127,  3,    -128, -128, -125, 127,  -30,  127,  -68,  127,  -128, -128, -56,  -73,  51,   -82,
    -23,  -30,  -108, 127,  -128, 33,   127,  127,  35,   -32,  127,  127,  124,  -128, 127,  42,   127,  9,    -45,
    79,   -68,  -128, -128, -128, 125,  -128, -128, 96,   -128, -14,  -10,  127,  36,   -128, -40,  13,   127,  -128,
    42,   -128, 127,  127,  11,   -30,  -61,  9,    -128, 93,   -124, 9,    -88,  -99,  -63,  74,   -128, 60,   -128,
    -3,   18,   127,  127,  127,  -1,   -128, 112,  -126, -89,  -128, 113,  -128, -128, -128, 2,    127,  -128, -21,
    127,  127,  127,  127,  -128, 127,  -128, 127,  127,  127,  127,  -104, -128, 57,   24,   127,  -83,  127,  -128,
    23,   87,   127,  91,   -128, -128, -128, 83,   -128, 127,  43,   127,  -71,  -128, 14,   -28,  -128, -128, 127,
    127,  127,  127,  -74,  127,  127,  49,   127,  127,  127,  -128, -128, 127,  -23,  127,  93,   127,  -128, -128,
    127,  54,   112,  127,  88,   127,  -75,  127,  127,  127,  22,   113,  127,  -128, 45,   -128, 127,  6,    -128,
    -128, -128, -69,  127,  -128, -51,  -128, 127,  127,  -48,  -11,  -128, -38,  20,   127,  -128, -128, 18,   35,
    -128, 127,  -128, -128, -128, 67,   21,   -128, -9,   -24};


const int32_t basic_2_int4_output_mult[15] = {1625401704,
                                              1475510972,
                                              2063419500,
                                              1316295616,
                                              1667129412,
                                              1698736005,
                                              1220690932,
                                              1330660196,
                                              1248202941,
                                              1231268639,
                                              1181698449,
                                              1822031425,
                                              1424780281,
                                              1309095009,
                                              1401794870};

const int32_t basic_2_int4_output_shift[15] = {-3, -4, -4, -4, -5, -3, -2, -3, -2, -2, -3, -5, -3, -3, -5};

